<?xml version="1.0"?>
<opencv_storage>
<stage15>
  <maxWeakCount>16</maxWeakCount>
  <stageThreshold>-1.0436394214630127e+00</stageThreshold>
  <weakClassifiers>
    <_>
      <internalNodes>
        0 -1 159856 1.4428740832954645e-03</internalNodes>
      <leafValues>
        -5.8014184236526489e-01 9.4736844301223755e-02</leafValues></_>
    <_>
      <internalNodes>
        0 -1 152984 -4.7136638313531876e-03</internalNodes>
      <leafValues>
        2.0683400332927704e-01 -3.0486983060836792e-01</leafValues></_>
    <_>
      <internalNodes>
        0 -1 11054 -8.1429928541183472e-03</internalNodes>
      <leafValues>
        6.6717469692230225e-01 -9.2069238424301147e-02</leafValues></_>
    <_>
      <internalNodes>
        0 -1 157712 -1.2438747100532055e-02</internalNodes>
      <leafValues>
        6.5997552871704102e-01 -8.7238408625125885e-02</leafValues></_>
    <_>
      <internalNodes>
        0 -1 150304 -4.6573206782341003e-03</internalNodes>
      <leafValues>
        5.3507673740386963e-01 -1.2554940581321716e-01</leafValues></_>
    <_>
      <internalNodes>
        0 -1 102602 -1.8212288618087769e-02</internalNodes>
      <leafValues>
        4.9320396780967712e-01 -1.1417920142412186e-01</leafValues></_>
    <_>
      <internalNodes>
        0 -1 43670 8.4987096488475800e-03</internalNodes>
      <leafValues>
        -2.3649150133132935e-01 2.8911867737770081e-01</leafValues></_>
    <_>
      <internalNodes>
        0 -1 50378 -1.1087820678949356e-01</internalNodes>
      <leafValues>
        -2.5981575250625610e-01 2.5159227848052979e-01</leafValues></_>
    <_>
      <internalNodes>
        0 -1 24876 -4.0261533111333847e-02</internalNodes>
      <leafValues>
        4.0718868374824524e-01 -1.8323715031147003e-01</leafValues></_>
    <_>
      <internalNodes>
        0 -1 126472 -6.6173709928989410e-03</internalNodes>
      <leafValues>
        -8.2603532075881958e-01 1.0523609071969986e-01</leafValues></_>
    <_>
      <internalNodes>
        0 -1 78231 -3.0143753974698484e-04</internalNodes>
      <leafValues>
        2.4566489458084106e-01 -2.7330005168914795e-01</leafValues></_>
    <_>
      <internalNodes>
        0 -1 131040 2.2009257227182388e-02</internalNodes>
      <leafValues>
        -1.3486333191394806e-01 4.7613802552223206e-01</leafValues></_>
    <_>
      <internalNodes>
        0 -1 159194 -1.0357033897889778e-04</internalNodes>
      <leafValues>
        -3.8471785187721252e-01 1.8664628267288208e-01</leafValues></_>
    <_>
      <internalNodes>
        0 -1 15365 1.0948055423796177e-03</internalNodes>
      <leafValues>
        -1.2427203357219696e-01 5.6755882501602173e-01</leafValues></_>
    <_>
      <internalNodes>
        0 -1 138466 -4.0733657078817487e-04</internalNodes>
      <leafValues>
        2.6566830277442932e-01 -2.5035032629966736e-01</leafValues></_>
    <_>
      <internalNodes>
        0 -1 142633 3.3601233735680580e-03</internalNodes>
      <leafValues>
        -1.2247639894485474e-01 6.5664702653884888e-01</leafValues></_></weakClassifiers></stage15>
</opencv_storage>
