<?xml version="1.0"?>
<opencv_storage>
<stage8>
  <maxWeakCount>12</maxWeakCount>
  <stageThreshold>-1.0954455137252808e+00</stageThreshold>
  <weakClassifiers>
    <_>
      <internalNodes>
        0 -1 114793 -2.2514268755912781e-02</internalNodes>
      <leafValues>
        1.6030533611774445e-01 -6.2929743528366089e-01</leafValues></_>
    <_>
      <internalNodes>
        0 -1 122487 -1.0501042008399963e-02</internalNodes>
      <leafValues>
        6.3633602857589722e-01 -2.3942600190639496e-01</leafValues></_>
    <_>
      <internalNodes>
        0 -1 157735 1.2061374261975288e-02</internalNodes>
      <leafValues>
        -3.1420528888702393e-01 3.7326422333717346e-01</leafValues></_>
    <_>
      <internalNodes>
        0 -1 126063 6.5719126723706722e-05</internalNodes>
      <leafValues>
        1.7220962047576904e-01 -6.5411901473999023e-01</leafValues></_>
    <_>
      <internalNodes>
        0 -1 97534 3.5488106310367584e-02</internalNodes>
      <leafValues>
        1.4324063062667847e-01 -8.3467257022857666e-01</leafValues></_>
    <_>
      <internalNodes>
        0 -1 147694 -4.6610709978267550e-04</internalNodes>
      <leafValues>
        4.1684997081756592e-01 -2.5360500812530518e-01</leafValues></_>
    <_>
      <internalNodes>
        0 -1 123522 -1.3183256611227989e-02</internalNodes>
      <leafValues>
        7.3672747611999512e-01 -1.3187924027442932e-01</leafValues></_>
    <_>
      <internalNodes>
        0 -1 121505 -1.9071523565798998e-03</internalNodes>
      <leafValues>
        4.6665596961975098e-01 -2.0974506437778473e-01</leafValues></_>
    <_>
      <internalNodes>
        0 -1 25818 9.9916069302707911e-04</internalNodes>
      <leafValues>
        -2.2193208336830139e-01 4.5732092857360840e-01</leafValues></_>
    <_>
      <internalNodes>
        0 -1 160179 -6.9789617555215955e-04</internalNodes>
      <leafValues>
        6.2991768121719360e-01 -1.6773232817649841e-01</leafValues></_>
    <_>
      <internalNodes>
        0 -1 160179 7.1600440423935652e-04</internalNodes>
      <leafValues>
        -1.7963182926177979e-01 5.9373408555984497e-01</leafValues></_>
    <_>
      <internalNodes>
        0 -1 13376 -1.8753553740680218e-03</internalNodes>
      <leafValues>
        4.6987912058830261e-01 -2.4990078806877136e-01</leafValues></_></weakClassifiers></stage8>
</opencv_storage>
