<?xml version="1.0"?>
<opencv_storage>
<stage3>
  <maxWeakCount>6</maxWeakCount>
  <stageThreshold>-1.1008322238922119e+00</stageThreshold>
  <weakClassifiers>
    <_>
      <internalNodes>
        0 -1 124276 -3.2559935934841633e-03</internalNodes>
      <leafValues>
        2.1585902571678162e-01 -7.8359508514404297e-01</leafValues></_>
    <_>
      <internalNodes>
        0 -1 56747 3.9305426180362701e-03</internalNodes>
      <leafValues>
        -4.8165258765220642e-01 5.1803737878799438e-01</leafValues></_>
    <_>
      <internalNodes>
        0 -1 98488 9.8587181419134140e-03</internalNodes>
      <leafValues>
        -5.0595062971115112e-01 4.0135073661804199e-01</leafValues></_>
    <_>
      <internalNodes>
        0 -1 98743 -3.4022089093923569e-03</internalNodes>
      <leafValues>
        4.6231055259704590e-01 -4.5408681035041809e-01</leafValues></_>
    <_>
      <internalNodes>
        0 -1 150851 -2.5077450554817915e-03</internalNodes>
      <leafValues>
        6.7012846469879150e-01 -3.2228556275367737e-01</leafValues></_>
    <_>
      <internalNodes>
        0 -1 144477 -1.8458155682310462e-03</internalNodes>
      <leafValues>
        5.3943705558776855e-01 -3.7288737297058105e-01</leafValues></_></weakClassifiers></stage3>
</opencv_storage>
