<?xml version="1.0"?>
<opencv_storage>
<stage4>
  <maxWeakCount>7</maxWeakCount>
  <stageThreshold>-1.2620394229888916e+00</stageThreshold>
  <weakClassifiers>
    <_>
      <internalNodes>
        0 -1 120647 -8.1803109496831894e-03</internalNodes>
      <leafValues>
        1.6494844853878021e-01 -7.1287131309509277e-01</leafValues></_>
    <_>
      <internalNodes>
        0 -1 5950 -1.4594634063541889e-02</internalNodes>
      <leafValues>
        4.2908984422683716e-01 -4.8084950447082520e-01</leafValues></_>
    <_>
      <internalNodes>
        0 -1 26767 -2.6540452241897583e-01</internalNodes>
      <leafValues>
        -9.8868530988693237e-01 1.9465605914592743e-01</leafValues></_>
    <_>
      <internalNodes>
        0 -1 15327 9.0317204594612122e-02</internalNodes>
      <leafValues>
        2.3642806708812714e-01 -8.0760967731475830e-01</leafValues></_>
    <_>
      <internalNodes>
        0 -1 132086 1.8164440989494324e-03</internalNodes>
      <leafValues>
        -5.2383005619049072e-01 3.0723330378532410e-01</leafValues></_>
    <_>
      <internalNodes>
        0 -1 149985 -6.8955810274928808e-04</internalNodes>
      <leafValues>
        5.0903177261352539e-01 -3.6911380290985107e-01</leafValues></_>
    <_>
      <internalNodes>
        0 -1 33213 2.0098050590604544e-03</internalNodes>
      <leafValues>
        -3.5854294896125793e-01 5.5943322181701660e-01</leafValues></_></weakClassifiers></stage4>
</opencv_storage>
