<?xml version="1.0"?>
<opencv_storage>
<stage6>
  <maxWeakCount>10</maxWeakCount>
  <stageThreshold>-1.1222221851348877e+00</stageThreshold>
  <weakClassifiers>
    <_>
      <internalNodes>
        0 -1 102382 4.8592723906040192e-03</internalNodes>
      <leafValues>
        -6.3742691278457642e-01 3.1034481525421143e-01</leafValues></_>
    <_>
      <internalNodes>
        0 -1 33014 6.6669307649135590e-02</internalNodes>
      <leafValues>
        1.1791536211967468e-01 -8.4140652418136597e-01</leafValues></_>
    <_>
      <internalNodes>
        0 -1 29323 -1.7202877998352051e-01</internalNodes>
      <leafValues>
        -9.6166640520095825e-01 1.1106488853693008e-01</leafValues></_>
    <_>
      <internalNodes>
        0 -1 55626 1.3912457972764969e-02</internalNodes>
      <leafValues>
        -2.7211830019950867e-01 6.2543123960494995e-01</leafValues></_>
    <_>
      <internalNodes>
        0 -1 162064 1.0561295785009861e-03</internalNodes>
      <leafValues>
        -1.2148842960596085e-01 7.8628635406494141e-01</leafValues></_>
    <_>
      <internalNodes>
        0 -1 37771 5.9696920216083527e-02</internalNodes>
      <leafValues>
        -1.7330013215541840e-01 6.6727483272552490e-01</leafValues></_>
    <_>
      <internalNodes>
        0 -1 151263 6.6736422013491392e-04</internalNodes>
      <leafValues>
        -2.8152394294738770e-01 4.6122696995735168e-01</leafValues></_>
    <_>
      <internalNodes>
        0 -1 121425 1.5643632505089045e-03</internalNodes>
      <leafValues>
        -1.6103881597518921e-01 6.7996156215667725e-01</leafValues></_>
    <_>
      <internalNodes>
        0 -1 91455 2.0658168941736221e-02</internalNodes>
      <leafValues>
        -1.7187152802944183e-01 7.8134369850158691e-01</leafValues></_>
    <_>
      <internalNodes>
        0 -1 160837 1.8983720801770687e-03</internalNodes>
      <leafValues>
        -2.2363814711570740e-01 5.0476258993148804e-01</leafValues></_></weakClassifiers></stage6>
</opencv_storage>
