<?xml version="1.0"?>
<opencv_storage>
<stage13>
  <maxWeakCount>23</maxWeakCount>
  <stageThreshold>-1.1510071754455566e+00</stageThreshold>
  <weakClassifiers>
    <_>
      <internalNodes>
        0 -1 149826 -1.3420295715332031e-01</internalNodes>
      <leafValues>
        -5.4712039232254028e-01 5.0000000000000000e-01</leafValues></_>
    <_>
      <internalNodes>
        0 -1 65309 -7.4708402156829834e-02</internalNodes>
      <leafValues>
        -7.3955184221267700e-01 2.9462380334734917e-02</leafValues></_>
    <_>
      <internalNodes>
        0 -1 90218 5.7974003255367279e-02</internalNodes>
      <leafValues>
        1.2794634699821472e-01 -6.0663092136383057e-01</leafValues></_>
    <_>
      <internalNodes>
        0 -1 13305 -1.4510906767100096e-03</internalNodes>
      <leafValues>
        3.6337321996688843e-01 -1.9965158402919769e-01</leafValues></_>
    <_>
      <internalNodes>
        0 -1 82897 8.4793437272310257e-03</internalNodes>
      <leafValues>
        -9.1944649815559387e-02 4.9349513649940491e-01</leafValues></_>
    <_>
      <internalNodes>
        0 -1 53664 -1.4361672103404999e-02</internalNodes>
      <leafValues>
        5.2881538867950439e-01 -1.2496713548898697e-01</leafValues></_>
    <_>
      <internalNodes>
        0 -1 34495 -3.8361579179763794e-02</internalNodes>
      <leafValues>
        5.3573185205459595e-01 -1.2120824307203293e-01</leafValues></_>
    <_>
      <internalNodes>
        0 -1 100 3.7414070684462786e-03</internalNodes>
      <leafValues>
        -1.7945080995559692e-01 3.5748234391212463e-01</leafValues></_>
    <_>
      <internalNodes>
        0 -1 10035 -7.8292032703757286e-03</internalNodes>
      <leafValues>
        6.0512268543243408e-01 -9.0764775872230530e-02</leafValues></_>
    <_>
      <internalNodes>
        0 -1 8060 -7.5322290649637580e-04</internalNodes>
      <leafValues>
        1.7804269492626190e-01 -3.6142781376838684e-01</leafValues></_>
    <_>
      <internalNodes>
        0 -1 142163 -8.1028911517933011e-04</internalNodes>
      <leafValues>
        3.5174831748008728e-01 -2.1164622902870178e-01</leafValues></_>
    <_>
      <internalNodes>
        0 -1 141912 3.5009351558983326e-03</internalNodes>
      <leafValues>
        -1.4703589677810669e-01 5.4860985279083252e-01</leafValues></_>
    <_>
      <internalNodes>
        0 -1 45776 1.9385949708521366e-03</internalNodes>
      <leafValues>
        1.2324083596467972e-01 -4.7181934118270874e-01</leafValues></_>
    <_>
      <internalNodes>
        0 -1 102168 7.7529316768050194e-03</internalNodes>
      <leafValues>
        -2.0980864763259888e-01 3.2309567928314209e-01</leafValues></_>
    <_>
      <internalNodes>
        0 -1 119554 -2.7076022233814001e-03</internalNodes>
      <leafValues>
        3.1600636243820190e-01 -1.9130951166152954e-01</leafValues></_>
    <_>
      <internalNodes>
        0 -1 143647 4.4553968473337591e-04</internalNodes>
      <leafValues>
        -2.4988858401775360e-01 2.3685845732688904e-01</leafValues></_>
    <_>
      <internalNodes>
        0 -1 78645 -1.1029143352061510e-03</internalNodes>
      <leafValues>
        3.0465033650398254e-01 -1.9550143182277679e-01</leafValues></_>
    <_>
      <internalNodes>
        0 -1 120320 3.2142039388418198e-02</internalNodes>
      <leafValues>
        9.0984955430030823e-02 -7.4406599998474121e-01</leafValues></_>
    <_>
      <internalNodes>
        0 -1 39681 -1.4908557757735252e-02</internalNodes>
      <leafValues>
        4.5844215154647827e-01 -1.4831022918224335e-01</leafValues></_>
    <_>
      <internalNodes>
        0 -1 90994 5.1777184009552002e-02</internalNodes>
      <leafValues>
        -1.3124284148216248e-01 5.1767277717590332e-01</leafValues></_>
    <_>
      <internalNodes>
        0 -1 134247 1.3719266280531883e-03</internalNodes>
      <leafValues>
        -1.9234903156757355e-01 3.1851598620414734e-01</leafValues></_>
    <_>
      <internalNodes>
        0 -1 94011 2.0224552601575851e-02</internalNodes>
      <leafValues>
        7.7483586966991425e-02 -7.6323819160461426e-01</leafValues></_>
    <_>
      <internalNodes>
        0 -1 153927 -5.2869552746415138e-05</internalNodes>
      <leafValues>
        1.7977255582809448e-01 -3.2298514246940613e-01</leafValues></_></weakClassifiers></stage13>
</opencv_storage>
