<?xml version="1.0"?>
<opencv_storage>
<stage7>
  <maxWeakCount>11</maxWeakCount>
  <stageThreshold>-1.5744304656982422e+00</stageThreshold>
  <weakClassifiers>
    <_>
      <internalNodes>
        0 -1 132173 -2.8023978695273399e-02</internalNodes>
      <leafValues>
        2.9687500000000000e-01 -6.5178573131561279e-01</leafValues></_>
    <_>
      <internalNodes>
        0 -1 5102 -1.9273098558187485e-02</internalNodes>
      <leafValues>
        4.3966415524482727e-01 -3.6897334456443787e-01</leafValues></_>
    <_>
      <internalNodes>
        0 -1 25578 3.4367747139185667e-03</internalNodes>
      <leafValues>
        -3.7134596705436707e-01 3.4632277488708496e-01</leafValues></_>
    <_>
      <internalNodes>
        0 -1 111124 -1.7154363449662924e-03</internalNodes>
      <leafValues>
        3.4326443076133728e-01 -4.1292235255241394e-01</leafValues></_>
    <_>
      <internalNodes>
        0 -1 5837 5.7701941113919020e-04</internalNodes>
      <leafValues>
        -2.2826488316059113e-01 5.7964140176773071e-01</leafValues></_>
    <_>
      <internalNodes>
        0 -1 78227 5.9798080474138260e-04</internalNodes>
      <leafValues>
        -2.1917843818664551e-01 5.1332259178161621e-01</leafValues></_>
    <_>
      <internalNodes>
        0 -1 105911 -2.5156715419143438e-03</internalNodes>
      <leafValues>
        6.8728953599929810e-01 -2.1949858963489532e-01</leafValues></_>
    <_>
      <internalNodes>
        0 -1 145475 -6.7789498716592789e-03</internalNodes>
      <leafValues>
        5.3140705823898315e-01 -1.9538292288780212e-01</leafValues></_>
    <_>
      <internalNodes>
        0 -1 11036 8.3681638352572918e-04</internalNodes>
      <leafValues>
        -1.8880695104598999e-01 7.2418999671936035e-01</leafValues></_>
    <_>
      <internalNodes>
        0 -1 106189 -1.5949834138154984e-02</internalNodes>
      <leafValues>
        6.5852081775665283e-01 -1.9131933152675629e-01</leafValues></_>
    <_>
      <internalNodes>
        0 -1 85785 1.2454497627913952e-03</internalNodes>
      <leafValues>
        -1.8992686271667480e-01 6.0271257162094116e-01</leafValues></_></weakClassifiers></stage7>
</opencv_storage>
