<?xml version="1.0"?>
<opencv_storage>
<stage11>
  <maxWeakCount>17</maxWeakCount>
  <stageThreshold>-9.7382861375808716e-01</stageThreshold>
  <weakClassifiers>
    <_>
      <internalNodes>
        0 -1 149912 -1.0643448680639267e-02</internalNodes>
      <leafValues>
        2.7536231279373169e-01 -5.7318741083145142e-01</leafValues></_>
    <_>
      <internalNodes>
        0 -1 126348 1.0579435911495239e-04</internalNodes>
      <leafValues>
        1.0178609192371368e-01 -4.8905172944068909e-01</leafValues></_>
    <_>
      <internalNodes>
        0 -1 126348 -7.6260126661509275e-05</internalNodes>
      <leafValues>
        -5.9858691692352295e-01 1.3600206375122070e-01</leafValues></_>
    <_>
      <internalNodes>
        0 -1 107604 -2.6876918971538544e-02</internalNodes>
      <leafValues>
        -5.0364929437637329e-01 1.3746404647827148e-01</leafValues></_>
    <_>
      <internalNodes>
        0 -1 7877 5.4923780262470245e-02</internalNodes>
      <leafValues>
        1.5149132907390594e-01 -7.0918309688568115e-01</leafValues></_>
    <_>
      <internalNodes>
        0 -1 161178 -5.6113896425813437e-04</internalNodes>
      <leafValues>
        3.7944608926773071e-01 -2.0449930429458618e-01</leafValues></_>
    <_>
      <internalNodes>
        0 -1 120598 5.9758415445685387e-03</internalNodes>
      <leafValues>
        -1.7560309171676636e-01 4.6896535158157349e-01</leafValues></_>
    <_>
      <internalNodes>
        0 -1 159456 8.0194999463856220e-04</internalNodes>
      <leafValues>
        -2.6096576452255249e-01 2.8023275732994080e-01</leafValues></_>
    <_>
      <internalNodes>
        0 -1 86333 2.8860024176537991e-03</internalNodes>
      <leafValues>
        -1.6661290824413300e-01 4.3290206789970398e-01</leafValues></_>
    <_>
      <internalNodes>
        0 -1 60796 -1.2554857879877090e-02</internalNodes>
      <leafValues>
        -4.2648702859878540e-01 1.6161319613456726e-01</leafValues></_>
    <_>
      <internalNodes>
        0 -1 137046 -5.2943415939807892e-02</internalNodes>
      <leafValues>
        -5.8060109615325928e-01 1.2864673137664795e-01</leafValues></_>
    <_>
      <internalNodes>
        0 -1 75803 -7.2153620421886444e-03</internalNodes>
      <leafValues>
        3.3658599853515625e-01 -2.2815872728824615e-01</leafValues></_>
    <_>
      <internalNodes>
        0 -1 88544 -7.3299760697409511e-04</internalNodes>
      <leafValues>
        3.0425614118576050e-01 -2.4127890169620514e-01</leafValues></_>
    <_>
      <internalNodes>
        0 -1 89578 -1.9904186774510890e-04</internalNodes>
      <leafValues>
        -3.4972533583641052e-01 2.3961053788661957e-01</leafValues></_>
    <_>
      <internalNodes>
        0 -1 112817 -2.2881442680954933e-02</internalNodes>
      <leafValues>
        -2.1850194036960602e-01 4.2276304960250854e-01</leafValues></_>
    <_>
      <internalNodes>
        0 -1 7545 -1.9211488962173462e-01</internalNodes>
      <leafValues>
        1.8111073970794678e-01 -5.1979011297225952e-01</leafValues></_>
    <_>
      <internalNodes>
        0 -1 87590 -8.2305278629064560e-03</internalNodes>
      <leafValues>
        6.6615802049636841e-01 -1.4818082749843597e-01</leafValues></_></weakClassifiers></stage11>
</opencv_storage>
