<?xml version="1.0"?>
<opencv_storage>
<stage5>
  <maxWeakCount>10</maxWeakCount>
  <stageThreshold>-1.7512732744216919e+00</stageThreshold>
  <weakClassifiers>
    <_>
      <internalNodes>
        0 -1 110814 2.1112864837050438e-02</internalNodes>
      <leafValues>
        -6.4502161741256714e-01 4.3925234675407410e-01</leafValues></_>
    <_>
      <internalNodes>
        0 -1 118680 9.9448268883861601e-05</internalNodes>
      <leafValues>
        1.4485612511634827e-01 -7.0866572856903076e-01</leafValues></_>
    <_>
      <internalNodes>
        0 -1 159623 5.6503340601921082e-03</internalNodes>
      <leafValues>
        -2.8509801626205444e-01 5.8069622516632080e-01</leafValues></_>
    <_>
      <internalNodes>
        0 -1 150298 -1.2346219737082720e-03</internalNodes>
      <leafValues>
        5.1591157913208008e-01 -2.7668279409408569e-01</leafValues></_>
    <_>
      <internalNodes>
        0 -1 120364 -1.6796513227745891e-03</internalNodes>
      <leafValues>
        5.4546731710433960e-01 -2.0852582156658173e-01</leafValues></_>
    <_>
      <internalNodes>
        0 -1 155791 -5.1343819359317422e-04</internalNodes>
      <leafValues>
        6.4802443981170654e-01 -2.5228726863861084e-01</leafValues></_>
    <_>
      <internalNodes>
        0 -1 40489 -4.0910565294325352e-03</internalNodes>
      <leafValues>
        4.4583880901336670e-01 -3.4079357981681824e-01</leafValues></_>
    <_>
      <internalNodes>
        0 -1 154919 1.7259739339351654e-02</internalNodes>
      <leafValues>
        -2.2399559617042542e-01 6.9719171524047852e-01</leafValues></_>
    <_>
      <internalNodes>
        0 -1 88807 -2.5195558555424213e-04</internalNodes>
      <leafValues>
        4.8800909519195557e-01 -3.0061331391334534e-01</leafValues></_>
    <_>
      <internalNodes>
        0 -1 79070 9.4600245356559753e-03</internalNodes>
      <leafValues>
        -2.6342305541038513e-01 5.8427375555038452e-01</leafValues></_></weakClassifiers></stage5>
</opencv_storage>
